{"hidden_weights": [[-0.13251394497117866, 0.30949795511394884, -1.3059743335417724, 3.2463168016822284, -0.9751278716082085, -0.0237989868991645, -3.545582617326482, -1.0827008531846891], [1.3348240092103238, 0.19616815417448275, -1.119679495047126, -7.110922820107554, -2.627105067063869, -3.197605137366249, -1.4142049116635127, 1.3569223145714895], [-2.4678787342472224, -2.2746605451022157, -0.6237462923591349, -0.7318932899368487, 0.16488944265755734, 2.8043731378390833, 0.6213786093593037, -2.6902453864627662], [0.16591357393627904, -1.5066018339870582, 4.928997800430713, 1.8901447368997972, -0.23184595658427887, 0.13806974563323635, -1.7887698668586278, 1.1885520054591807], [0.9464383073869167, 2.48213257712394, 2.764275008829651, -0.18205369785415654, 6.934679923167686, 1.5484797760205617, -2.476159871761122, 4.230848500757088], [0.20032824709995906, -0.06338433483562278, -2.134809660698788, 0.21570170032321295, -0.29518418317415723, -2.37609220309895, -0.079617655559234, -1.4573723717523137], [-1.0241605064988166, -3.7643887503252302, 0.5695389527987842, -2.3360621635573278, 4.394668639082659, -0.17762415222293632, 3.06911712193185, -0.3008763432695438], [1.9674414539379024, 2.3593748099082363, -0.9663813025110363, 2.8989435289701984, 0.7293188465126994, -0.4128278602676973, 0.8920320502022109, 6.303535685884684], [-1.0527411061580116, -4.88472212865102, 0.19819977734090338, 4.7094489221445315, -0.5529359058264914, -1.2197163962208122, -0.6935351203379739, 0.6623674863554572], [7.325879869518092, 0.5550460063574589, -2.765597319803485, -0.9146436734059783, 6.001848014741573, -6.0082981374686355, 4.242338404569803, -4.087290284594291]], "hidden_biases": [-0.8902309697039323, -2.5126929206977158, 1.749459734599632, -1.269534728198359, -0.8221658905250577, -0.6586198854050336, -2.636145538743814, 1.4098773968398404, 3.9017336879618254, 0.23824386998635916], "output_weights": [[3.64208040553178, -2.7287642926663054, -0.8011009552327648, 2.0731294641850893, -1.1396852175477852, 3.3406444045186787, -2.982669134519463, 0.4146423700639337, -2.5116425211325906, -0.6056484618313189], [3.144707936890348, 3.4532064999713885, -3.9483326959949707, 0.02849447741017691, -3.8501426995832957, -0.0052247795890420085, -1.2673115655362823, -1.4900876093108544, -1.6328283525240954, 1.5080068439344778], [-5.061075432795899, 2.36978320108739, -0.28116565164798957, 3.90654363043977, 3.178055999766256, -1.6314654196914187, 2.077178702246223, -6.887256029779024, -3.3555449363350465, -0.21858037160695293], [-2.2313194285200426, -6.108831319217784, 5.988579690564155, 4.843568626386556, -1.1580609629191885, 3.3258643795220713, 5.809618206540643, -0.33189551164307457, -4.289209204481942, 2.7569481555760182]], "output_biases": [-2.4238125974846003, -6.016082410658752, -0.9140593238861643, -5.064590310331972]}