{"hidden_weights": [[1.0516871048372443, -1.6761603823336357, 0.8938842112301023, -2.1356137619666504, -1.1013634731519608, -1.6204787292043576, 1.26302349257967, 1.6294566889549984], [1.0173508425023272, 0.4608799434451365, -0.3017446942008537, -0.1694328523577607, 0.8471645419658995, 0.9401338062606861, 0.4078208356273078, -2.5056444521745114], [-1.4149217051275083, 1.45598998648917, 0.6706274003376541, 0.8347031682149519, -0.5742934457595915, -1.3085736929798875, -0.17695667306722196, -0.012084307557842622], [0.05494566188420258, 0.05568654849033148, -0.587497933276081, 0.8415254065245354, -0.648872234466165, 1.370281868144437, 1.6197057393096042, 0.5395064194234569], [-1.0097751842018534, 1.4061822505258434, 0.17601285367367556, 1.7938251059763055, -0.9594443171400112, -1.2584293623314602, 1.787978996808567, -1.3313040329180827], [0.3763296370566074, -1.3839941571909962, -2.470045920694767, -0.3187106841630045, 1.6682796488756628, 0.6244544572527109, 2.881442687817212, -1.0132558877433808], [-3.787627333398055, 2.2724705070619944, 1.1732033699272728, -3.342533376148657, 0.40926453430532395, -1.8930924496973651, 0.23298501747343792, 0.897729708780667], [1.7881390853977677, -1.8007616720091566, 0.9741416544435995, -1.9222776364273675, -0.5909864525760622, 0.3142949834545421, 0.11436256554908959, 0.8088662962506177], [1.0171003236208778, 0.03990045838407391, -0.7301354635499835, 0.9621875103162174, -0.493284255658144, -1.689582625404859, -1.0508018405217252, 1.4496501586856063], [1.6967208602031452, 0.1995655572173202, 0.2611341868886553, -0.21304197104713662, 1.4196460491196081, 0.488663241900368, 1.0914660463287753, -0.9592899234280146]], "hidden_biases": [0.3812158225478104, 1.6451231328452673, -0.4151555188461833, -1.1317930401303766, 0.2480978032811876, 0.36866365273798146, -0.0928921518629656, -1.2077135184572894, 0.2048364040812734, -1.4990196039826384], "output_weights": [[-1.6894280685558647, -1.0874430280331298, -0.9960666090692069, -0.14181064856176384, 1.5091407131846026, -0.17833468171484185, -1.1826537576146725, -1.4177965277112854, -0.0698873471401148, 0.13442210925184783], [-0.10483198993834544, -0.05410192499563936, 0.4025592961816136, -0.9052757556932447, -0.03005696537487931, -1.1923740175912265, -1.6236579446362231, 0.674284959456305, -0.7929321949426148, -1.755996373050025], [-0.5341068352736914, -1.163498662851658, -0.3614601883349627, -1.4521903869040487, -2.5682624312967004, 0.2122359221866574, 0.45872500309625686, 0.4738339276124599, -2.03850246760227, -0.7800817322228301], [-3.3753781709261275, 1.283442724676262, -0.3208195578088547, -1.5663476650870654, -0.9246546700737232, 1.6813867747661007, -0.7723773055354743, 0.6022550327051099, -0.877581534691477, -0.8431358677495455]], "output_biases": [0.010768815472365717, -0.5874360863121922, 0.20423709562119496, -0.6803768850405317]}