{"hidden_weights": [[0.6137714410046453, 0.7941804255014947, 0.7447045840417629, 1.1885795179083896, -0.4459451980182251, -0.5718823556984807, 1.4364676679789465, -1.2462881000805923], [1.1497579130100588, 0.9175225535386176, -0.17347824624372862, -0.4569109669561041, -1.888019471923917, -0.5824820419856436, 0.24118883540354574, 0.08263808283607262], [-0.07287728148999484, 0.589763911686412, -0.9369812784796423, 1.1632484991623524, 1.5841154370018247, 1.0105409085174384, -0.577551107707872, -1.049816258235278], [-2.211859622005755, 1.3864675917946803, -1.3787656015655012, -1.0780290937705568, 1.7601488504732592, -0.04859116789204404, 1.4599915945763509, 0.6041391398503102], [-2.2820369099605453, 0.10442018029638363, -0.9544761870619807, -1.5332559286774876, 1.3017984427448468, -0.08879646951911013, -1.7104921029271536, -1.8868374786978042], [0.38980103206327443, 1.2272380887312913, 0.9060656062622419, -0.6842092267726743, -2.120095069052213, -1.1993819964959487, -2.375652537803231, -1.4214444552032663], [-0.6098565756068247, -0.6796801859238036, 0.2989489515521133, 0.8291834769732956, 0.5685251836590148, -0.08685098066422864, 1.0840881714456405, 1.116920016590531], [0.24286304397774863, 3.108666229525609, 2.3821783613013374, 0.6874108865079976, 0.41809766859993774, 0.1741539926806962, 0.010694845859195445, -0.003007656701329256], [-0.21056783820180616, -0.15055465230770734, 0.4000508534366406, -1.9875724699702955, -0.4344490921189148, 0.7808778310836129, 0.27257565592833255, -1.5355638789210737], [2.4743738193039637, 0.6741428671706192, 1.7651586284380059, -2.563381892340632, -0.42730518684188684, -0.9372563900450225, 0.0695602346282207, 0.8667282602378753]], "hidden_biases": [-0.060773330763586715, 1.0803621019077907, 0.0811625893314018, 0.5263340669008856, -0.5016230177529984, -1.7824888476337906, 1.1696718652567215, 1.2063393148316726, -0.7872447805970946, -1.1211776701996319], "output_weights": [[2.348863986968119, 0.6634369716410324, -0.9303185662444028, 0.5038897623443716, -0.7654447391087624, 1.303701509509156, 1.1313127742095948, -0.13335860108675882, -0.9593241569137441, -0.778200032946795], [1.4636297672234504, 0.9380237646604139, -0.9182903520292595, -1.5009997171927565, 0.8486611954886601, 0.8507141207445799, 1.3229019131557138, 1.592816092671315, -1.3570445377642355, 1.0770330303956763], [-4.419624457094532, 0.6961119756008172, -0.664541803984152, 0.33361369294063153, 0.802354237274891, 1.169594353961739, 1.405128256802135, 0.6558828241290844, 1.0014496958286219, 1.6882647848870684], [1.412598484548112, -0.5381907715122627, 2.5222166227715195, 1.030358304969655, 0.5432621391512582, -0.8143178275759652, 0.3539997509276286, -0.1715598948333668, -0.3771959067610925, -0.7868246931869167]], "output_biases": [-0.6102029004001401, -0.14334898808047852, 0.21774511964252727, 0.09915194702729058]}